<?xml version="1.0"?>
<opencv_storage>
<cascade>
  <stageType>BOOST</stageType>
  <featureType>HAAR</featureType>
  <height>20</height>
  <width>20</width>
  <stageParams>
    <boostType>GAB</boostType>
    <minHitRate>9.9500000476837158e-01</minHitRate>
    <maxFalseAlarm>5.0000000000000000e-01</maxFalseAlarm>
    <weightTrimRate>9.4999999999999996e-01</weightTrimRate>
    <maxDepth>1</maxDepth>
    <maxWeakCount>100</maxWeakCount></stageParams>
  <featureParams>
    <maxCatCount>0</maxCatCount>
    <featSize>1</featSize>
    <mode>BASIC</mode></featureParams>
  <stageNum>9</stageNum>
  <stages>
    <!-- stage 0 -->
    <_>
      <maxWeakCount>1</maxWeakCount>
      <stageThreshold>9.7359734773635864e-01</stageThreshold>
      <weakClassifiers>
        <_>
          <internalNodes>
            0 -1 12 7.7287003397941589e-02</internalNodes>
          <leafValues>
            -9.8639458417892456e-01 9.7359734773635864e-01</leafValues></_></weakClassifiers></_>
    <!-- stage 1 -->
    <_>
      <maxWeakCount>2</maxWeakCount>
      <stageThreshold>-2.0305116474628448e-01</stageThreshold>
      <weakClassifiers>
        <_>
          <internalNodes>
            0 -1 7 1.5185243450105190e-02</internalNodes>
          <leafValues>
            7.5294119119644165e-01 -9.6363633871078491e-01</leafValues></_>
        <_>
          <internalNodes>
            0 -1 4 1.2670081341639161e-03</internalNodes>
          <leafValues>
            -7.5402373075485229e-01 7.6058518886566162e-01</leafValues></_></weakClassifiers></_>
    <!-- stage 2 -->
    <_>
      <maxWeakCount>3</maxWeakCount>
      <stageThreshold>4.5949998497962952e-01</stageThreshold>
      <weakClassifiers>
        <_>
          <internalNodes>
            0 -1 5 4.5843309164047241e-01</internalNodes>
          <leafValues>
            -5.2542370557785034e-01 8.9010989665985107e-01</leafValues></_>
        <_>
          <internalNodes>
            0 -1 22 1.1108553735539317e-03</internalNodes>
          <leafValues>
            5.2743446826934814e-01 -1.</leafValues></_>
        <_>
          <internalNodes>
            0 -1 19 -1.5316157368943095e-03</internalNodes>
          <leafValues>
            -9.5804440975189209e-01 4.7799217700958252e-01</leafValues></_></weakClassifiers></_>
    <!-- stage 3 -->
    <_>
      <maxWeakCount>2</maxWeakCount>
      <stageThreshold>-2.2134487330913544e-01</stageThreshold>
      <weakClassifiers>
        <_>
          <internalNodes>
            0 -1 20 -2.5156282936222851e-04</internalNodes>
          <leafValues>
            -9.3814432621002197e-01 6.8271952867507935e-01</leafValues></_>
        <_>
          <internalNodes>
            0 -1 15 5.8539591729640961e-02</internalNodes>
          <leafValues>
            -6.8151968717575073e-01 7.1679943799972534e-01</leafValues></_></weakClassifiers></_>
    <!-- stage 4 -->
    <_>
      <maxWeakCount>3</maxWeakCount>
      <stageThreshold>-6.5935510396957397e-01</stageThreshold>
      <weakClassifiers>
        <_>
          <internalNodes>
            0 -1 17 1.4175437390804291e-03</internalNodes>
          <leafValues>
            7.4328356981277466e-01 -8.6086958646774292e-01</leafValues></_>
        <_>
          <internalNodes>
            0 -1 2 1.0845736600458622e-02</internalNodes>
          <leafValues>
            -7.3743021488189697e-01 6.6324794292449951e-01</leafValues></_>
        <_>
          <internalNodes>
            0 -1 24 -1.3311046175658703e-02</internalNodes>
          <leafValues>
            6.8632382154464722e-01 -6.6520845890045166e-01</leafValues></_></weakClassifiers></_>
    <!-- stage 5 -->
    <_>
      <maxWeakCount>1</maxWeakCount>
      <stageThreshold>6.4285713434219360e-01</stageThreshold>
      <weakClassifiers>
        <_>
          <internalNodes>
            0 -1 13 -1.2785529252141714e-03</internalNodes>
          <leafValues>
            -9.7674417495727539e-01 6.4285713434219360e-01</leafValues></_></weakClassifiers></_>
    <!-- stage 6 -->
    <_>
      <maxWeakCount>4</maxWeakCount>
      <stageThreshold>-5.3725397586822510e-01</stageThreshold>
      <weakClassifiers>
        <_>
          <internalNodes>
            0 -1 1 2.3078287020325661e-02</internalNodes>
          <leafValues>
            -7.2111552953720093e-01 7.4114018678665161e-01</leafValues></_>
        <_>
          <internalNodes>
            0 -1 21 2.9652164084836841e-04</internalNodes>
          <leafValues>
            5.0504869222640991e-01 -8.8718491792678833e-01</leafValues></_>
        <_>
          <internalNodes>
            0 -1 11 4.9435901455581188e-03</internalNodes>
          <leafValues>
            4.2061325907707214e-01 -9.5405179262161255e-01</leafValues></_>
        <_>
          <internalNodes>
            0 -1 23 -1.6596872359514236e-02</internalNodes>
          <leafValues>
            6.3286465406417847e-01 -6.3077664375305176e-01</leafValues></_></weakClassifiers></_>
    <!-- stage 7 -->
    <_>
      <maxWeakCount>4</maxWeakCount>
      <stageThreshold>-6.4773470163345337e-01</stageThreshold>
      <weakClassifiers>
        <_>
          <internalNodes>
            0 -1 10 -7.2569032199680805e-03</internalNodes>
          <leafValues>
            6.5470087528228760e-01 -8.0606061220169067e-01</leafValues></_>
        <_>
          <internalNodes>
            0 -1 0 3.6258533596992493e-02</internalNodes>
          <leafValues>
            -5.4134398698806763e-01 6.2374526262283325e-01</leafValues></_>
        <_>
          <internalNodes>
            0 -1 6 -2.0796724129468203e-04</internalNodes>
          <leafValues>
            4.0502801537513733e-01 -8.1959587335586548e-01</leafValues></_>
        <_>
          <internalNodes>
            0 -1 14 2.5625019334256649e-03</internalNodes>
          <leafValues>
            3.5417658090591431e-01 -9.1367352008819580e-01</leafValues></_></weakClassifiers></_>
    <!-- stage 8 -->
    <_>
      <maxWeakCount>5</maxWeakCount>
      <stageThreshold>-2.0084431767463684e-01</stageThreshold>
      <weakClassifiers>
        <_>
          <internalNodes>
            0 -1 16 3.9440891705453396e-03</internalNodes>
          <leafValues>
            -5.7142859697341919e-01 7.1863120794296265e-01</leafValues></_>
        <_>
          <internalNodes>
            0 -1 18 -3.6422631819732487e-04</internalNodes>
          <leafValues>
            4.9042576551437378e-01 -6.8311762809753418e-01</leafValues></_>
        <_>
          <internalNodes>
            0 -1 9 1.2555209104903042e-04</internalNodes>
          <leafValues>
            -9.4625526666641235e-01 3.2156616449356079e-01</leafValues></_>
        <_>
          <internalNodes>
            0 -1 3 5.1175961270928383e-03</internalNodes>
          <leafValues>
            -6.9525468349456787e-01 4.0400999784469604e-01</leafValues></_>
        <_>
          <internalNodes>
            0 -1 8 6.1842165887355804e-03</internalNodes>
          <leafValues>
            3.2812574505805969e-01 -8.9475810527801514e-01</leafValues></_></weakClassifiers></_></stages>
  <features>
    <_>
      <rects>
        <_>
          1 6 6 7 -1.</_>
        <_>
          4 6 3 7 2.</_></rects>
      <tilted>0</tilted></_>
    <_>
      <rects>
        <_>
          1 10 10 3 -1.</_>
        <_>
          6 10 5 3 2.</_></rects>
      <tilted>0</tilted></_>
    <_>
      <rects>
        <_>
          2 8 4 8 -1.</_>
        <_>
          4 8 2 8 2.</_></rects>
      <tilted>0</tilted></_>
    <_>
      <rects>
        <_>
          2 9 6 4 -1.</_>
        <_>
          4 9 2 4 3.</_></rects>
      <tilted>0</tilted></_>
    <_>
      <rects>
        <_>
          3 10 2 3 -1.</_>
        <_>
          4 10 1 3 2.</_></rects>
      <tilted>0</tilted></_>
    <_>
      <rects>
        <_>
          5 2 12 18 -1.</_>
        <_>
          5 8 12 6 3.</_></rects>
      <tilted>0</tilted></_>
    <_>
      <rects>
        <_>
          6 6 8 1 -1.</_>
        <_>
          10 6 4 1 2.</_></rects>
      <tilted>0</tilted></_>
    <_>
      <rects>
        <_>
          6 7 9 8 -1.</_>
        <_>
          9 7 3 8 3.</_></rects>
      <tilted>0</tilted></_>
    <_>
      <rects>
        <_>
          7 5 9 11 -1.</_>
        <_>
          10 5 3 11 3.</_></rects>
      <tilted>0</tilted></_>
    <_>
      <rects>
        <_>
          7 6 9 8 -1.</_>
        <_>
          10 6 3 8 3.</_></rects>
      <tilted>0</tilted></_>
    <_>
      <rects>
        <_>
          7 12 8 2 -1.</_>
        <_>
          7 13 8 1 2.</_></rects>
      <tilted>0</tilted></_>
    <_>
      <rects>
        <_>
          8 5 6 12 -1.</_>
        <_>
          11 5 3 12 2.</_></rects>
      <tilted>0</tilted></_>
    <_>
      <rects>
        <_>
          9 4 3 15 -1.</_>
        <_>
          9 9 3 5 3.</_></rects>
      <tilted>0</tilted></_>
    <_>
      <rects>
        <_>
          9 6 4 10 -1.</_>
        <_>
          11 6 2 10 2.</_></rects>
      <tilted>0</tilted></_>
    <_>
      <rects>
        <_>
          9 7 4 9 -1.</_>
        <_>
          11 7 2 9 2.</_></rects>
      <tilted>0</tilted></_>
    <_>
      <rects>
        <_>
          9 7 3 9 -1.</_>
        <_>
          9 10 3 3 3.</_></rects>
      <tilted>0</tilted></_>
    <_>
      <rects>
        <_>
          9 10 3 3 -1.</_>
        <_>
          9 11 3 1 3.</_></rects>
      <tilted>0</tilted></_>
    <_>
      <rects>
        <_>
          10 4 3 13 -1.</_>
        <_>
          11 4 1 13 3.</_></rects>
      <tilted>0</tilted></_>
    <_>
      <rects>
        <_>
          10 5 6 3 -1.</_>
        <_>
          12 5 2 3 3.</_></rects>
      <tilted>0</tilted></_>
    <_>
      <rects>
        <_>
          10 5 4 11 -1.</_>
        <_>
          12 5 2 11 2.</_></rects>
      <tilted>0</tilted></_>
    <_>
      <rects>
        <_>
          10 9 6 6 -1.</_>
        <_>
          12 9 2 6 3.</_></rects>
      <tilted>0</tilted></_>
    <_>
      <rects>
        <_>
          11 4 1 4 -1.</_>
        <_>
          11 6 1 2 2.</_></rects>
      <tilted>0</tilted></_>
    <_>
      <rects>
        <_>
          11 6 2 11 -1.</_>
        <_>
          12 6 1 11 2.</_></rects>
      <tilted>0</tilted></_>
    <_>
      <rects>
        <_>
          16 5 4 7 -1.</_>
        <_>
          18 5 2 7 2.</_></rects>
      <tilted>0</tilted></_>
    <_>
      <rects>
        <_>
          16 7 4 7 -1.</_>
        <_>
          18 7 2 7 2.</_></rects>
      <tilted>0</tilted></_></features></cascade>
</opencv_storage>
